digraph Tree {
node [shape=box] ;
0 [label="X[38] <= 0.5\ngini = 0.8985\nsamples = 236\nvalue = [36, 33, 35, 43, 30, 34, 31, 43, 34, 40]"] ;
1 [label="X[26] <= 9.5\ngini = 0.8351\nsamples = 107\nvalue = [3, 31, 35, 12, 2, 26, 13, 1, 34, 6]"] ;
0 -> 1 [labeldistance=2.5, labelangle=45, headlabel="True"] ;
2 [label="X[54] <= 1.5\ngini = 0.7332\nsamples = 62\nvalue = [2, 20, 35, 12, 0, 0, 1, 0, 22, 0]"] ;
1 -> 2 ;
3 [label="X[12] <= 14.5\ngini = 0.6889\nsamples = 32\nvalue = [2, 19, 3, 7, 0, 0, 0, 0, 18, 0]"] ;
2 -> 3 ;
4 [label="X[18] <= 7.5\ngini = 0.5612\nsamples = 21\nvalue = [2, 1, 1, 7, 0, 0, 0, 0, 17, 0]"] ;
3 -> 4 ;
5 [label="X[42] <= 0.5\ngini = 0.5455\nsamples = 10\nvalue = [0, 1, 1, 7, 0, 0, 0, 0, 2, 0]"] ;
4 -> 5 ;
6 [label="gini = 0.0\nsamples = 6\nvalue = [0, 0, 0, 7, 0, 0, 0, 0, 0, 0]"] ;
5 -> 6 ;
7 [label="X[13] <= 13.0\ngini = 0.625\nsamples = 4\nvalue = [0, 1, 1, 0, 0, 0, 0, 0, 2, 0]"] ;
5 -> 7 ;
8 [label="gini = 0.0\nsamples = 2\nvalue = [0, 0, 0, 0, 0, 0, 0, 0, 2, 0]"] ;
7 -> 8 ;
9 [label="X[11] <= 3.5\ngini = 0.5\nsamples = 2\nvalue = [0, 1, 1, 0, 0, 0, 0, 0, 0, 0]"] ;
7 -> 9 ;
10 [label="gini = 0.0\nsamples = 1\nvalue = [0, 1, 0, 0, 0, 0, 0, 0, 0, 0]"] ;
9 -> 10 ;
11 [label="gini = 0.0\nsamples = 1\nvalue = [0, 0, 1, 0, 0, 0, 0, 0, 0, 0]"] ;
9 -> 11 ;
12 [label="X[35] <= 6.0\ngini = 0.2076\nsamples = 11\nvalue = [2, 0, 0, 0, 0, 0, 0, 0, 15, 0]"] ;
4 -> 12 ;
13 [label="gini = 0.0\nsamples = 2\nvalue = [2, 0, 0, 0, 0, 0, 0, 0, 0, 0]"] ;
12 -> 13 ;
14 [label="gini = 0.0\nsamples = 9\nvalue = [0, 0, 0, 0, 0, 0, 0, 0, 15, 0]"] ;
12 -> 14 ;
15 [label="X[30] <= 4.0\ngini = 0.254\nsamples = 11\nvalue = [0, 18, 2, 0, 0, 0, 0, 0, 1, 0]"] ;
3 -> 15 ;
16 [label="X[13] <= 15.0\ngini = 0.0997\nsamples = 10\nvalue = [0, 18, 0, 0, 0, 0, 0, 0, 1, 0]"] ;
15 -> 16 ;
17 [label="gini = 0.0\nsamples = 8\nvalue = [0, 17, 0, 0, 0, 0, 0, 0, 0, 0]"] ;
16 -> 17 ;
18 [label="X[51] <= 9.0\ngini = 0.5\nsamples = 2\nvalue = [0, 1, 0, 0, 0, 0, 0, 0, 1, 0]"] ;
16 -> 18 ;
19 [label="gini = 0.0\nsamples = 1\nvalue = [0, 0, 0, 0, 0, 0, 0, 0, 1, 0]"] ;
18 -> 19 ;
20 [label="gini = 0.0\nsamples = 1\nvalue = [0, 1, 0, 0, 0, 0, 0, 0, 0, 0]"] ;
18 -> 20 ;
21 [label="gini = 0.0\nsamples = 1\nvalue = [0, 0, 2, 0, 0, 0, 0, 0, 0, 0]"] ;
15 -> 21 ;
22 [label="X[2] <= 2.5\ngini = 0.4229\nsamples = 30\nvalue = [0, 1, 32, 5, 0, 0, 1, 0, 4, 0]"] ;
2 -> 22 ;
23 [label="X[59] <= 13.5\ngini = 0.56\nsamples = 3\nvalue = [0, 0, 0, 1, 0, 0, 1, 0, 3, 0]"] ;
22 -> 23 ;
24 [label="X[35] <= 12.0\ngini = 0.5\nsamples = 2\nvalue = [0, 0, 0, 1, 0, 0, 1, 0, 0, 0]"] ;
23 -> 24 ;
25 [label="gini = 0.0\nsamples = 1\nvalue = [0, 0, 0, 1, 0, 0, 0, 0, 0, 0]"] ;
24 -> 25 ;
26 [label="gini = 0.0\nsamples = 1\nvalue = [0, 0, 0, 0, 0, 0, 1, 0, 0, 0]"] ;
24 -> 26 ;
27 [label="gini = 0.0\nsamples = 1\nvalue = [0, 0, 0, 0, 0, 0, 0, 0, 3, 0]"] ;
23 -> 27 ;
28 [label="X[14] <= 1.5\ngini = 0.2784\nsamples = 27\nvalue = [0, 1, 32, 4, 0, 0, 0, 0, 1, 0]"] ;
22 -> 28 ;
29 [label="X[9] <= 1.5\ngini = 0.1661\nsamples = 24\nvalue = [0, 1, 31, 1, 0, 0, 0, 0, 1, 0]"] ;
28 -> 29 ;
30 [label="X[18] <= 9.0\ngini = 0.5\nsamples = 2\nvalue = [0, 1, 1, 0, 0, 0, 0, 0, 0, 0]"] ;
29 -> 30 ;
31 [label="gini = 0.0\nsamples = 1\nvalue = [0, 1, 0, 0, 0, 0, 0, 0, 0, 0]"] ;
30 -> 31 ;
32 [label="gini = 0.0\nsamples = 1\nvalue = [0, 0, 1, 0, 0, 0, 0, 0, 0, 0]"] ;
30 -> 32 ;
33 [label="X[52] <= 2.0\ngini = 0.1191\nsamples = 22\nvalue = [0, 0, 30, 1, 0, 0, 0, 0, 1, 0]"] ;
29 -> 33 ;
34 [label="gini = 0.0\nsamples = 1\nvalue = [0, 0, 0, 0, 0, 0, 0, 0, 1, 0]"] ;
33 -> 34 ;
35 [label="X[10] <= 14.5\ngini = 0.0624\nsamples = 21\nvalue = [0, 0, 30, 1, 0, 0, 0, 0, 0, 0]"] ;
33 -> 35 ;
36 [label="X[11] <= 4.5\ngini = 0.32\nsamples = 4\nvalue = [0, 0, 4, 1, 0, 0, 0, 0, 0, 0]"] ;
35 -> 36 ;
37 [label="gini = 0.0\nsamples = 1\nvalue = [0, 0, 0, 1, 0, 0, 0, 0, 0, 0]"] ;
36 -> 37 ;
38 [label="gini = 0.0\nsamples = 3\nvalue = [0, 0, 4, 0, 0, 0, 0, 0, 0, 0]"] ;
36 -> 38 ;
39 [label="gini = 0.0\nsamples = 17\nvalue = [0, 0, 26, 0, 0, 0, 0, 0, 0, 0]"] ;
35 -> 39 ;
40 [label="X[42] <= 2.5\ngini = 0.375\nsamples = 3\nvalue = [0, 0, 1, 3, 0, 0, 0, 0, 0, 0]"] ;
28 -> 40 ;
41 [label="gini = 0.0\nsamples = 2\nvalue = [0, 0, 0, 3, 0, 0, 0, 0, 0, 0]"] ;
40 -> 41 ;
42 [label="gini = 0.0\nsamples = 1\nvalue = [0, 0, 1, 0, 0, 0, 0, 0, 0, 0]"] ;
40 -> 42 ;
43 [label="X[62] <= 0.5\ngini = 0.7764\nsamples = 45\nvalue = [1, 11, 0, 0, 2, 26, 12, 1, 12, 6]"] ;
1 -> 43 ;
44 [label="X[29] <= 8.0\ngini = 0.6908\nsamples = 34\nvalue = [1, 6, 0, 0, 2, 26, 1, 1, 9, 6]"] ;
43 -> 44 ;
45 [label="X[20] <= 10.0\ngini = 0.4327\nsamples = 23\nvalue = [0, 3, 0, 0, 2, 26, 1, 0, 1, 2]"] ;
44 -> 45 ;
46 [label="X[10] <= 10.0\ngini = 0.0713\nsamples = 18\nvalue = [0, 0, 0, 0, 0, 26, 1, 0, 0, 0]"] ;
45 -> 46 ;
47 [label="gini = 0.0\nsamples = 1\nvalue = [0, 0, 0, 0, 0, 0, 1, 0, 0, 0]"] ;
46 -> 47 ;
48 [label="gini = 0.0\nsamples = 17\nvalue = [0, 0, 0, 0, 0, 26, 0, 0, 0, 0]"] ;
46 -> 48 ;
49 [label="X[19] <= 15.0\ngini = 0.7188\nsamples = 5\nvalue = [0, 3, 0, 0, 2, 0, 0, 0, 1, 2]"] ;
45 -> 49 ;
50 [label="X[26] <= 12.0\ngini = 0.64\nsamples = 3\nvalue = [0, 0, 0, 0, 2, 0, 0, 0, 1, 2]"] ;
49 -> 50 ;
51 [label="gini = 0.0\nsamples = 1\nvalue = [0, 0, 0, 0, 0, 0, 0, 0, 0, 2]"] ;
50 -> 51 ;
52 [label="X[21] <= 13.0\ngini = 0.4444\nsamples = 2\nvalue = [0, 0, 0, 0, 2, 0, 0, 0, 1, 0]"] ;
50 -> 52 ;
53 [label="gini = 0.0\nsamples = 1\nvalue = [0, 0, 0, 0, 0, 0, 0, 0, 1, 0]"] ;
52 -> 53 ;
54 [label="gini = 0.0\nsamples = 1\nvalue = [0, 0, 0, 0, 2, 0, 0, 0, 0, 0]"] ;
52 -> 54 ;
55 [label="gini = 0.0\nsamples = 2\nvalue = [0, 3, 0, 0, 0, 0, 0, 0, 0, 0]"] ;
49 -> 55 ;
56 [label="X[5] <= 12.0\ngini = 0.6851\nsamples = 11\nvalue = [1, 3, 0, 0, 0, 0, 0, 1, 8, 4]"] ;
44 -> 56 ;
57 [label="X[3] <= 8.5\ngini = 0.5562\nsamples = 9\nvalue = [1, 3, 0, 0, 0, 0, 0, 1, 8, 0]"] ;
56 -> 57 ;
58 [label="X[36] <= 14.5\ngini = 0.375\nsamples = 3\nvalue = [0, 3, 0, 0, 0, 0, 0, 1, 0, 0]"] ;
57 -> 58 ;
59 [label="gini = 0.0\nsamples = 1\nvalue = [0, 0, 0, 0, 0, 0, 0, 1, 0, 0]"] ;
58 -> 59 ;
60 [label="gini = 0.0\nsamples = 2\nvalue = [0, 3, 0, 0, 0, 0, 0, 0, 0, 0]"] ;
58 -> 60 ;
61 [label="X[25] <= 6.0\ngini = 0.1975\nsamples = 6\nvalue = [1, 0, 0, 0, 0, 0, 0, 0, 8, 0]"] ;
57 -> 61 ;
62 [label="gini = 0.0\nsamples = 5\nvalue = [0, 0, 0, 0, 0, 0, 0, 0, 8, 0]"] ;
61 -> 62 ;
63 [label="gini = 0.0\nsamples = 1\nvalue = [1, 0, 0, 0, 0, 0, 0, 0, 0, 0]"] ;
61 -> 63 ;
64 [label="gini = 0.0\nsamples = 2\nvalue = [0, 0, 0, 0, 0, 0, 0, 0, 0, 4]"] ;
56 -> 64 ;
65 [label="X[41] <= 0.5\ngini = 0.5706\nsamples = 11\nvalue = [0, 5, 0, 0, 0, 0, 11, 0, 3, 0]"] ;
43 -> 65 ;
66 [label="X[51] <= 13.0\ngini = 0.62\nsamples = 5\nvalue = [0, 5, 0, 0, 0, 0, 2, 0, 3, 0]"] ;
65 -> 66 ;
67 [label="gini = 0.0\nsamples = 3\nvalue = [0, 5, 0, 0, 0, 0, 0, 0, 0, 0]"] ;
66 -> 67 ;
68 [label="X[26] <= 12.5\ngini = 0.48\nsamples = 2\nvalue = [0, 0, 0, 0, 0, 0, 2, 0, 3, 0]"] ;
66 -> 68 ;
69 [label="gini = 0.0\nsamples = 1\nvalue = [0, 0, 0, 0, 0, 0, 2, 0, 0, 0]"] ;
68 -> 69 ;
70 [label="gini = 0.0\nsamples = 1\nvalue = [0, 0, 0, 0, 0, 0, 0, 0, 3, 0]"] ;
68 -> 70 ;
71 [label="gini = 0.0\nsamples = 6\nvalue = [0, 0, 0, 0, 0, 0, 9, 0, 0, 0]"] ;
65 -> 71 ;
72 [label="X[60] <= 7.5\ngini = 0.84\nsamples = 129\nvalue = [33, 2, 0, 31, 28, 8, 18, 42, 0, 34]"] ;
0 -> 72 [labeldistance=2.5, labelangle=-45, headlabel="False"] ;
73 [label="X[53] <= 1.0\ngini = 0.2266\nsamples = 29\nvalue = [0, 0, 0, 0, 1, 1, 0, 42, 0, 4]"] ;
72 -> 73 ;
74 [label="gini = 0.0\nsamples = 25\nvalue = [0, 0, 0, 0, 0, 0, 0, 42, 0, 0]"] ;
73 -> 74 ;
75 [label="X[22] <= 0.5\ngini = 0.5\nsamples = 4\nvalue = [0, 0, 0, 0, 1, 1, 0, 0, 0, 4]"] ;
73 -> 75 ;
76 [label="X[58] <= 5.5\ngini = 0.5\nsamples = 2\nvalue = [0, 0, 0, 0, 1, 1, 0, 0, 0, 0]"] ;
75 -> 76 ;
77 [label="gini = 0.0\nsamples = 1\nvalue = [0, 0, 0, 0, 1, 0, 0, 0, 0, 0]"] ;
76 -> 77 ;
78 [label="gini = 0.0\nsamples = 1\nvalue = [0, 0, 0, 0, 0, 1, 0, 0, 0, 0]"] ;
76 -> 78 ;
79 [label="gini = 0.0\nsamples = 2\nvalue = [0, 0, 0, 0, 0, 0, 0, 0, 0, 4]"] ;
75 -> 79 ;
80 [label="X[26] <= 6.5\ngini = 0.8148\nsamples = 100\nvalue = [33, 2, 0, 31, 27, 7, 18, 0, 0, 30]"] ;
72 -> 80 ;
81 [label="X[9] <= 0.5\ngini = 0.3133\nsamples = 23\nvalue = [0, 0, 0, 29, 0, 0, 0, 0, 0, 7]"] ;
80 -> 81 ;
82 [label="X[36] <= 2.5\ngini = 0.4922\nsamples = 11\nvalue = [0, 0, 0, 9, 0, 0, 0, 0, 0, 7]"] ;
81 -> 82 ;
83 [label="gini = 0.0\nsamples = 4\nvalue = [0, 0, 0, 0, 0, 0, 0, 0, 0, 6]"] ;
82 -> 83 ;
84 [label="X[35] <= 5.0\ngini = 0.18\nsamples = 7\nvalue = [0, 0, 0, 9, 0, 0, 0, 0, 0, 1]"] ;
82 -> 84 ;
85 [label="gini = 0.0\nsamples = 6\nvalue = [0, 0, 0, 9, 0, 0, 0, 0, 0, 0]"] ;
84 -> 85 ;
86 [label="gini = 0.0\nsamples = 1\nvalue = [0, 0, 0, 0, 0, 0, 0, 0, 0, 1]"] ;
84 -> 86 ;
87 [label="gini = 0.0\nsamples = 12\nvalue = [0, 0, 0, 20, 0, 0, 0, 0, 0, 0]"] ;
81 -> 87 ;
88 [label="X[21] <= 9.0\ngini = 0.7825\nsamples = 77\nvalue = [33, 2, 0, 2, 27, 7, 18, 0, 0, 23]"] ;
80 -> 88 ;
89 [label="X[3] <= 10.5\ngini = 0.6319\nsamples = 36\nvalue = [0, 0, 0, 2, 22, 6, 18, 0, 0, 0]"] ;
88 -> 89 ;
90 [label="X[41] <= 1.5\ngini = 0.2188\nsamples = 17\nvalue = [0, 0, 0, 0, 21, 0, 3, 0, 0, 0]"] ;
89 -> 90 ;
91 [label="X[17] <= 4.0\ngini = 0.375\nsamples = 4\nvalue = [0, 0, 0, 0, 1, 0, 3, 0, 0, 0]"] ;
90 -> 91 ;
92 [label="gini = 0.0\nsamples = 3\nvalue = [0, 0, 0, 0, 0, 0, 3, 0, 0, 0]"] ;
91 -> 92 ;
93 [label="gini = 0.0\nsamples = 1\nvalue = [0, 0, 0, 0, 1, 0, 0, 0, 0, 0]"] ;
91 -> 93 ;
94 [label="gini = 0.0\nsamples = 13\nvalue = [0, 0, 0, 0, 20, 0, 0, 0, 0, 0]"] ;
90 -> 94 ;
95 [label="X[2] <= 4.5\ngini = 0.5382\nsamples = 19\nvalue = [0, 0, 0, 2, 1, 6, 15, 0, 0, 0]"] ;
89 -> 95 ;
96 [label="X[28] <= 9.5\ngini = 0.2901\nsamples = 14\nvalue = [0, 0, 0, 2, 1, 0, 15, 0, 0, 0]"] ;
95 -> 96 ;
97 [label="gini = 0.0\nsamples = 12\nvalue = [0, 0, 0, 0, 0, 0, 15, 0, 0, 0]"] ;
96 -> 97 ;
98 [label="X[28] <= 13.5\ngini = 0.4444\nsamples = 2\nvalue = [0, 0, 0, 2, 1, 0, 0, 0, 0, 0]"] ;
96 -> 98 ;
99 [label="gini = 0.0\nsamples = 1\nvalue = [0, 0, 0, 0, 1, 0, 0, 0, 0, 0]"] ;
98 -> 99 ;
100 [label="gini = 0.0\nsamples = 1\nvalue = [0, 0, 0, 2, 0, 0, 0, 0, 0, 0]"] ;
98 -> 100 ;
101 [label="gini = 0.0\nsamples = 5\nvalue = [0, 0, 0, 0, 0, 6, 0, 0, 0, 0]"] ;
95 -> 101 ;
102 [label="X[33] <= 3.5\ngini = 0.5977\nsamples = 41\nvalue = [33, 2, 0, 0, 5, 1, 0, 0, 0, 23]"] ;
88 -> 102 ;
103 [label="X[52] <= 11.0\ngini = 0.2661\nsamples = 17\nvalue = [1, 2, 0, 0, 0, 1, 0, 0, 0, 23]"] ;
102 -> 103 ;
104 [label="X[37] <= 15.5\ngini = 0.0868\nsamples = 13\nvalue = [0, 1, 0, 0, 0, 0, 0, 0, 0, 21]"] ;
103 -> 104 ;
105 [label="gini = 0.0\nsamples = 11\nvalue = [0, 0, 0, 0, 0, 0, 0, 0, 0, 19]"] ;
104 -> 105 ;
106 [label="X[42] <= 1.5\ngini = 0.4444\nsamples = 2\nvalue = [0, 1, 0, 0, 0, 0, 0, 0, 0, 2]"] ;
104 -> 106 ;
107 [label="gini = 0.0\nsamples = 1\nvalue = [0, 1, 0, 0, 0, 0, 0, 0, 0, 0]"] ;
106 -> 107 ;
108 [label="gini = 0.0\nsamples = 1\nvalue = [0, 0, 0, 0, 0, 0, 0, 0, 0, 2]"] ;
106 -> 108 ;
109 [label="X[17] <= 3.5\ngini = 0.72\nsamples = 4\nvalue = [1, 1, 0, 0, 0, 1, 0, 0, 0, 2]"] ;
103 -> 109 ;
110 [label="X[43] <= 2.5\ngini = 0.6667\nsamples = 3\nvalue = [1, 1, 0, 0, 0, 1, 0, 0, 0, 0]"] ;
109 -> 110 ;
111 [label="gini = 0.0\nsamples = 1\nvalue = [0, 0, 0, 0, 0, 1, 0, 0, 0, 0]"] ;
110 -> 111 ;
112 [label="X[22] <= 3.5\ngini = 0.5\nsamples = 2\nvalue = [1, 1, 0, 0, 0, 0, 0, 0, 0, 0]"] ;
110 -> 112 ;
113 [label="gini = 0.0\nsamples = 1\nvalue = [1, 0, 0, 0, 0, 0, 0, 0, 0, 0]"] ;
112 -> 113 ;
114 [label="gini = 0.0\nsamples = 1\nvalue = [0, 1, 0, 0, 0, 0, 0, 0, 0, 0]"] ;
112 -> 114 ;
115 [label="gini = 0.0\nsamples = 1\nvalue = [0, 0, 0, 0, 0, 0, 0, 0, 0, 2]"] ;
109 -> 115 ;
116 [label="X[35] <= 8.0\ngini = 0.2337\nsamples = 24\nvalue = [32, 0, 0, 0, 5, 0, 0, 0, 0, 0]"] ;
102 -> 116 ;
117 [label="X[51] <= 3.5\ngini = 0.0588\nsamples = 21\nvalue = [32, 0, 0, 0, 1, 0, 0, 0, 0, 0]"] ;
116 -> 117 ;
118 [label="X[26] <= 13.5\ngini = 0.4444\nsamples = 2\nvalue = [2, 0, 0, 0, 1, 0, 0, 0, 0, 0]"] ;
117 -> 118 ;
119 [label="gini = 0.0\nsamples = 1\nvalue = [2, 0, 0, 0, 0, 0, 0, 0, 0, 0]"] ;
118 -> 119 ;
120 [label="gini = 0.0\nsamples = 1\nvalue = [0, 0, 0, 0, 1, 0, 0, 0, 0, 0]"] ;
118 -> 120 ;
121 [label="gini = 0.0\nsamples = 19\nvalue = [30, 0, 0, 0, 0, 0, 0, 0, 0, 0]"] ;
117 -> 121 ;
122 [label="gini = 0.0\nsamples = 3\nvalue = [0, 0, 0, 0, 4, 0, 0, 0, 0, 0]"] ;
116 -> 122 ;
}