digraph Tree {
node [shape=box] ;
0 [label="X[33] <= 3.5\ngini = 0.8973\nsamples = 229\nvalue = [39, 39, 47, 40, 34, 33, 31, 34, 24, 38]"] ;
1 [label="X[21] <= 1.5\ngini = 0.868\nsamples = 161\nvalue = [1, 28, 47, 39, 2, 30, 19, 26, 22, 38]"] ;
0 -> 1 [labeldistance=2.5, labelangle=45, headlabel="True"] ;
2 [label="X[60] <= 14.5\ngini = 0.7318\nsamples = 44\nvalue = [0, 9, 10, 2, 1, 27, 19, 1, 0, 0]"] ;
1 -> 2 ;
3 [label="X[61] <= 6.5\ngini = 0.5138\nsamples = 22\nvalue = [0, 2, 5, 1, 1, 23, 1, 1, 0, 0]"] ;
2 -> 3 ;
4 [label="X[20] <= 8.5\ngini = 0.2208\nsamples = 16\nvalue = [0, 1, 0, 1, 0, 22, 0, 1, 0, 0]"] ;
3 -> 4 ;
5 [label="gini = 0.0\nsamples = 13\nvalue = [0, 0, 0, 0, 0, 22, 0, 0, 0, 0]"] ;
4 -> 5 ;
6 [label="X[30] <= 1.0\ngini = 0.6667\nsamples = 3\nvalue = [0, 1, 0, 1, 0, 0, 0, 1, 0, 0]"] ;
4 -> 6 ;
7 [label="X[18] <= 2.5\ngini = 0.5\nsamples = 2\nvalue = [0, 1, 0, 1, 0, 0, 0, 0, 0, 0]"] ;
6 -> 7 ;
8 [label="gini = 0.0\nsamples = 1\nvalue = [0, 1, 0, 0, 0, 0, 0, 0, 0, 0]"] ;
7 -> 8 ;
9 [label="gini = 0.0\nsamples = 1\nvalue = [0, 0, 0, 1, 0, 0, 0, 0, 0, 0]"] ;
7 -> 9 ;
10 [label="gini = 0.0\nsamples = 1\nvalue = [0, 0, 0, 0, 0, 0, 0, 1, 0, 0]"] ;
6 -> 10 ;
11 [label="X[50] <= 10.0\ngini = 0.642\nsamples = 6\nvalue = [0, 1, 5, 0, 1, 1, 1, 0, 0, 0]"] ;
3 -> 11 ;
12 [label="X[28] <= 1.5\ngini = 0.75\nsamples = 4\nvalue = [0, 1, 0, 0, 1, 1, 1, 0, 0, 0]"] ;
11 -> 12 ;
13 [label="gini = 0.0\nsamples = 1\nvalue = [0, 0, 0, 0, 0, 0, 1, 0, 0, 0]"] ;
12 -> 13 ;
14 [label="X[36] <= 13.0\ngini = 0.6667\nsamples = 3\nvalue = [0, 1, 0, 0, 1, 1, 0, 0, 0, 0]"] ;
12 -> 14 ;
15 [label="gini = 0.0\nsamples = 1\nvalue = [0, 0, 0, 0, 1, 0, 0, 0, 0, 0]"] ;
14 -> 15 ;
16 [label="X[52] <= 10.0\ngini = 0.5\nsamples = 2\nvalue = [0, 1, 0, 0, 0, 1, 0, 0, 0, 0]"] ;
14 -> 16 ;
17 [label="gini = 0.0\nsamples = 1\nvalue = [0, 0, 0, 0, 0, 1, 0, 0, 0, 0]"] ;
16 -> 17 ;
18 [label="gini = 0.0\nsamples = 1\nvalue = [0, 1, 0, 0, 0, 0, 0, 0, 0, 0]"] ;
16 -> 18 ;
19 [label="gini = 0.0\nsamples = 2\nvalue = [0, 0, 5, 0, 0, 0, 0, 0, 0, 0]"] ;
11 -> 19 ;
20 [label="X[52] <= 11.5\ngini = 0.6612\nsamples = 22\nvalue = [0, 7, 5, 1, 0, 4, 18, 0, 0, 0]"] ;
2 -> 20 ;
21 [label="X[12] <= 12.0\ngini = 0.3667\nsamples = 15\nvalue = [0, 0, 1, 1, 0, 3, 18, 0, 0, 0]"] ;
20 -> 21 ;
22 [label="X[42] <= 6.0\ngini = 0.2449\nsamples = 13\nvalue = [0, 0, 0, 0, 0, 3, 18, 0, 0, 0]"] ;
21 -> 22 ;
23 [label="gini = 0.0\nsamples = 2\nvalue = [0, 0, 0, 0, 0, 3, 0, 0, 0, 0]"] ;
22 -> 23 ;
24 [label="gini = 0.0\nsamples = 11\nvalue = [0, 0, 0, 0, 0, 0, 18, 0, 0, 0]"] ;
22 -> 24 ;
25 [label="X[51] <= 10.5\ngini = 0.5\nsamples = 2\nvalue = [0, 0, 1, 1, 0, 0, 0, 0, 0, 0]"] ;
21 -> 25 ;
26 [label="gini = 0.0\nsamples = 1\nvalue = [0, 0, 0, 1, 0, 0, 0, 0, 0, 0]"] ;
25 -> 26 ;
27 [label="gini = 0.0\nsamples = 1\nvalue = [0, 0, 1, 0, 0, 0, 0, 0, 0, 0]"] ;
25 -> 27 ;
28 [label="X[9] <= 3.0\ngini = 0.5417\nsamples = 7\nvalue = [0, 7, 4, 0, 0, 1, 0, 0, 0, 0]"] ;
20 -> 28 ;
29 [label="gini = 0.0\nsamples = 3\nvalue = [0, 7, 0, 0, 0, 0, 0, 0, 0, 0]"] ;
28 -> 29 ;
30 [label="X[4] <= 9.5\ngini = 0.32\nsamples = 4\nvalue = [0, 0, 4, 0, 0, 1, 0, 0, 0, 0]"] ;
28 -> 30 ;
31 [label="gini = 0.0\nsamples = 3\nvalue = [0, 0, 4, 0, 0, 0, 0, 0, 0, 0]"] ;
30 -> 31 ;
32 [label="gini = 0.0\nsamples = 1\nvalue = [0, 0, 0, 0, 0, 1, 0, 0, 0, 0]"] ;
30 -> 32 ;
33 [label="X[43] <= 2.5\ngini = 0.8309\nsamples = 117\nvalue = [1, 19, 37, 37, 1, 3, 0, 25, 22, 38]"] ;
1 -> 33 ;
34 [label="X[29] <= 11.5\ngini = 0.6234\nsamples = 50\nvalue = [0, 3, 3, 34, 0, 3, 0, 1, 1, 35]"] ;
33 -> 34 ;
35 [label="X[34] <= 0.5\ngini = 0.2715\nsamples = 23\nvalue = [0, 0, 0, 27, 0, 0, 0, 0, 1, 4]"] ;
34 -> 35 ;
36 [label="gini = 0.0\nsamples = 18\nvalue = [0, 0, 0, 24, 0, 0, 0, 0, 0, 0]"] ;
35 -> 36 ;
37 [label="X[9] <= 3.5\ngini = 0.5938\nsamples = 5\nvalue = [0, 0, 0, 3, 0, 0, 0, 0, 1, 4]"] ;
35 -> 37 ;
38 [label="X[3] <= 8.5\ngini = 0.32\nsamples = 3\nvalue = [0, 0, 0, 0, 0, 0, 0, 0, 1, 4]"] ;
37 -> 38 ;
39 [label="gini = 0.0\nsamples = 1\nvalue = [0, 0, 0, 0, 0, 0, 0, 0, 1, 0]"] ;
38 -> 39 ;
40 [label="gini = 0.0\nsamples = 2\nvalue = [0, 0, 0, 0, 0, 0, 0, 0, 0, 4]"] ;
38 -> 40 ;
41 [label="gini = 0.0\nsamples = 2\nvalue = [0, 0, 0, 3, 0, 0, 0, 0, 0, 0]"] ;
37 -> 41 ;
42 [label="X[27] <= 2.5\ngini = 0.5495\nsamples = 27\nvalue = [0, 3, 3, 7, 0, 3, 0, 1, 0, 31]"] ;
34 -> 42 ;
43 [label="X[53] <= 6.5\ngini = 0.54\nsamples = 5\nvalue = [0, 0, 3, 6, 0, 0, 0, 1, 0, 0]"] ;
42 -> 43 ;
44 [label="X[36] <= 3.5\ngini = 0.375\nsamples = 2\nvalue = [0, 0, 3, 0, 0, 0, 0, 1, 0, 0]"] ;
43 -> 44 ;
45 [label="gini = 0.0\nsamples = 1\nvalue = [0, 0, 3, 0, 0, 0, 0, 0, 0, 0]"] ;
44 -> 45 ;
46 [label="gini = 0.0\nsamples = 1\nvalue = [0, 0, 0, 0, 0, 0, 0, 1, 0, 0]"] ;
44 -> 46 ;
47 [label="gini = 0.0\nsamples = 3\nvalue = [0, 0, 0, 6, 0, 0, 0, 0, 0, 0]"] ;
43 -> 47 ;
48 [label="X[54] <= 15.0\ngini = 0.3213\nsamples = 22\nvalue = [0, 3, 0, 1, 0, 3, 0, 0, 0, 31]"] ;
42 -> 48 ;
49 [label="X[3] <= 0.5\ngini = 0.2185\nsamples = 20\nvalue = [0, 3, 0, 1, 0, 0, 0, 0, 0, 29]"] ;
48 -> 49 ;
50 [label="gini = 0.0\nsamples = 2\nvalue = [0, 3, 0, 0, 0, 0, 0, 0, 0, 0]"] ;
49 -> 50 ;
51 [label="X[45] <= 15.5\ngini = 0.0644\nsamples = 18\nvalue = [0, 0, 0, 1, 0, 0, 0, 0, 0, 29]"] ;
49 -> 51 ;
52 [label="gini = 0.0\nsamples = 17\nvalue = [0, 0, 0, 0, 0, 0, 0, 0, 0, 29]"] ;
51 -> 52 ;
53 [label="gini = 0.0\nsamples = 1\nvalue = [0, 0, 0, 1, 0, 0, 0, 0, 0, 0]"] ;
51 -> 53 ;
54 [label="X[51] <= 8.5\ngini = 0.48\nsamples = 2\nvalue = [0, 0, 0, 0, 0, 3, 0, 0, 0, 2]"] ;
48 -> 54 ;
55 [label="gini = 0.0\nsamples = 1\nvalue = [0, 0, 0, 0, 0, 0, 0, 0, 0, 2]"] ;
54 -> 55 ;
56 [label="gini = 0.0\nsamples = 1\nvalue = [0, 0, 0, 0, 0, 3, 0, 0, 0, 0]"] ;
54 -> 56 ;
57 [label="X[63] <= 0.5\ngini = 0.7692\nsamples = 67\nvalue = [1, 16, 34, 3, 1, 0, 0, 24, 21, 3]"] ;
33 -> 57 ;
58 [label="X[53] <= 0.5\ngini = 0.7854\nsamples = 59\nvalue = [1, 16, 22, 3, 1, 0, 0, 24, 21, 3]"] ;
57 -> 58 ;
59 [label="X[19] <= 10.0\ngini = 0.4609\nsamples = 24\nvalue = [0, 3, 0, 0, 1, 0, 0, 23, 3, 2]"] ;
58 -> 59 ;
60 [label="X[36] <= 11.5\ngini = 0.2101\nsamples = 19\nvalue = [0, 0, 0, 0, 1, 0, 0, 23, 0, 2]"] ;
59 -> 60 ;
61 [label="X[58] <= 9.5\ngini = 0.4444\nsamples = 2\nvalue = [0, 0, 0, 0, 1, 0, 0, 0, 0, 2]"] ;
60 -> 61 ;
62 [label="gini = 0.0\nsamples = 1\nvalue = [0, 0, 0, 0, 0, 0, 0, 0, 0, 2]"] ;
61 -> 62 ;
63 [label="gini = 0.0\nsamples = 1\nvalue = [0, 0, 0, 0, 1, 0, 0, 0, 0, 0]"] ;
61 -> 63 ;
64 [label="gini = 0.0\nsamples = 17\nvalue = [0, 0, 0, 0, 0, 0, 0, 23, 0, 0]"] ;
60 -> 64 ;
65 [label="X[19] <= 15.5\ngini = 0.5\nsamples = 5\nvalue = [0, 3, 0, 0, 0, 0, 0, 0, 3, 0]"] ;
59 -> 65 ;
66 [label="gini = 0.0\nsamples = 3\nvalue = [0, 0, 0, 0, 0, 0, 0, 0, 3, 0]"] ;
65 -> 66 ;
67 [label="gini = 0.0\nsamples = 2\nvalue = [0, 3, 0, 0, 0, 0, 0, 0, 0, 0]"] ;
65 -> 67 ;
68 [label="X[20] <= 11.5\ngini = 0.7159\nsamples = 35\nvalue = [1, 13, 22, 3, 0, 0, 0, 1, 18, 1]"] ;
58 -> 68 ;
69 [label="X[34] <= 0.5\ngini = 0.449\nsamples = 14\nvalue = [1, 0, 4, 0, 0, 0, 0, 1, 15, 0]"] ;
68 -> 69 ;
70 [label="gini = 0.0\nsamples = 3\nvalue = [0, 0, 4, 0, 0, 0, 0, 0, 0, 0]"] ;
69 -> 70 ;
71 [label="X[43] <= 14.5\ngini = 0.2145\nsamples = 11\nvalue = [1, 0, 0, 0, 0, 0, 0, 1, 15, 0]"] ;
69 -> 71 ;
72 [label="X[30] <= 4.0\ngini = 0.1172\nsamples = 10\nvalue = [1, 0, 0, 0, 0, 0, 0, 0, 15, 0]"] ;
71 -> 72 ;
73 [label="gini = 0.0\nsamples = 9\nvalue = [0, 0, 0, 0, 0, 0, 0, 0, 15, 0]"] ;
72 -> 73 ;
74 [label="gini = 0.0\nsamples = 1\nvalue = [1, 0, 0, 0, 0, 0, 0, 0, 0, 0]"] ;
72 -> 74 ;
75 [label="gini = 0.0\nsamples = 1\nvalue = [0, 0, 0, 0, 0, 0, 0, 1, 0, 0]"] ;
71 -> 75 ;
76 [label="X[37] <= 0.5\ngini = 0.6454\nsamples = 21\nvalue = [0, 13, 18, 3, 0, 0, 0, 0, 3, 1]"] ;
68 -> 76 ;
77 [label="X[27] <= 12.0\ngini = 0.4567\nsamples = 9\nvalue = [0, 0, 12, 3, 0, 0, 0, 0, 2, 0]"] ;
76 -> 77 ;
78 [label="gini = 0.0\nsamples = 6\nvalue = [0, 0, 12, 0, 0, 0, 0, 0, 0, 0]"] ;
77 -> 78 ;
79 [label="X[50] <= 14.0\ngini = 0.48\nsamples = 3\nvalue = [0, 0, 0, 3, 0, 0, 0, 0, 2, 0]"] ;
77 -> 79 ;
80 [label="gini = 0.0\nsamples = 2\nvalue = [0, 0, 0, 3, 0, 0, 0, 0, 0, 0]"] ;
79 -> 80 ;
81 [label="gini = 0.0\nsamples = 1\nvalue = [0, 0, 0, 0, 0, 0, 0, 0, 2, 0]"] ;
79 -> 81 ;
82 [label="X[50] <= 7.0\ngini = 0.5306\nsamples = 12\nvalue = [0, 13, 6, 0, 0, 0, 0, 0, 1, 1]"] ;
76 -> 82 ;
83 [label="gini = 0.0\nsamples = 7\nvalue = [0, 12, 0, 0, 0, 0, 0, 0, 0, 0]"] ;
82 -> 83 ;
84 [label="X[38] <= 1.5\ngini = 0.5185\nsamples = 5\nvalue = [0, 1, 6, 0, 0, 0, 0, 0, 1, 1]"] ;
82 -> 84 ;
85 [label="X[49] <= 1.5\ngini = 0.2449\nsamples = 3\nvalue = [0, 1, 6, 0, 0, 0, 0, 0, 0, 0]"] ;
84 -> 85 ;
86 [label="gini = 0.0\nsamples = 1\nvalue = [0, 1, 0, 0, 0, 0, 0, 0, 0, 0]"] ;
85 -> 86 ;
87 [label="gini = 0.0\nsamples = 2\nvalue = [0, 0, 6, 0, 0, 0, 0, 0, 0, 0]"] ;
85 -> 87 ;
88 [label="X[35] <= 7.0\ngini = 0.5\nsamples = 2\nvalue = [0, 0, 0, 0, 0, 0, 0, 0, 1, 1]"] ;
84 -> 88 ;
89 [label="gini = 0.0\nsamples = 1\nvalue = [0, 0, 0, 0, 0, 0, 0, 0, 0, 1]"] ;
88 -> 89 ;
90 [label="gini = 0.0\nsamples = 1\nvalue = [0, 0, 0, 0, 0, 0, 0, 0, 1, 0]"] ;
88 -> 90 ;
91 [label="gini = 0.0\nsamples = 8\nvalue = [0, 0, 12, 0, 0, 0, 0, 0, 0, 0]"] ;
57 -> 91 ;
92 [label="X[36] <= 0.5\ngini = 0.7545\nsamples = 68\nvalue = [38, 11, 0, 1, 32, 3, 12, 8, 2, 0]"] ;
0 -> 92 [labeldistance=2.5, labelangle=-45, headlabel="False"] ;
93 [label="X[3] <= 5.5\ngini = 0.1446\nsamples = 25\nvalue = [36, 0, 0, 0, 2, 1, 0, 0, 0, 0]"] ;
92 -> 93 ;
94 [label="gini = 0.0\nsamples = 1\nvalue = [0, 0, 0, 0, 2, 0, 0, 0, 0, 0]"] ;
93 -> 94 ;
95 [label="X[38] <= 3.0\ngini = 0.0526\nsamples = 24\nvalue = [36, 0, 0, 0, 0, 1, 0, 0, 0, 0]"] ;
93 -> 95 ;
96 [label="X[22] <= 2.0\ngini = 0.375\nsamples = 3\nvalue = [3, 0, 0, 0, 0, 1, 0, 0, 0, 0]"] ;
95 -> 96 ;
97 [label="gini = 0.0\nsamples = 1\nvalue = [0, 0, 0, 0, 0, 1, 0, 0, 0, 0]"] ;
96 -> 97 ;
98 [label="gini = 0.0\nsamples = 2\nvalue = [3, 0, 0, 0, 0, 0, 0, 0, 0, 0]"] ;
96 -> 98 ;
99 [label="gini = 0.0\nsamples = 21\nvalue = [33, 0, 0, 0, 0, 0, 0, 0, 0, 0]"] ;
95 -> 99 ;
100 [label="X[19] <= 1.0\ngini = 0.7314\nsamples = 43\nvalue = [2, 11, 0, 1, 30, 2, 12, 8, 2, 0]"] ;
92 -> 100 ;
101 [label="gini = 0.0\nsamples = 4\nvalue = [0, 0, 0, 0, 0, 0, 0, 7, 0, 0]"] ;
100 -> 101 ;
102 [label="X[5] <= 3.5\ngini = 0.6831\nsamples = 39\nvalue = [2, 11, 0, 1, 30, 2, 12, 1, 2, 0]"] ;
100 -> 102 ;
103 [label="X[29] <= 2.5\ngini = 0.2344\nsamples = 16\nvalue = [0, 0, 0, 0, 20, 0, 2, 1, 0, 0]"] ;
102 -> 103 ;
104 [label="X[44] <= 7.5\ngini = 0.64\nsamples = 4\nvalue = [0, 0, 0, 0, 2, 0, 2, 1, 0, 0]"] ;
103 -> 104 ;
105 [label="gini = 0.0\nsamples = 2\nvalue = [0, 0, 0, 0, 0, 0, 2, 0, 0, 0]"] ;
104 -> 105 ;
106 [label="X[51] <= 12.0\ngini = 0.4444\nsamples = 2\nvalue = [0, 0, 0, 0, 2, 0, 0, 1, 0, 0]"] ;
104 -> 106 ;
107 [label="gini = 0.0\nsamples = 1\nvalue = [0, 0, 0, 0, 2, 0, 0, 0, 0, 0]"] ;
106 -> 107 ;
108 [label="gini = 0.0\nsamples = 1\nvalue = [0, 0, 0, 0, 0, 0, 0, 1, 0, 0]"] ;
106 -> 108 ;
109 [label="gini = 0.0\nsamples = 12\nvalue = [0, 0, 0, 0, 18, 0, 0, 0, 0, 0]"] ;
103 -> 109 ;
110 [label="X[59] <= 7.5\ngini = 0.7687\nsamples = 23\nvalue = [2, 11, 0, 1, 10, 2, 10, 0, 2, 0]"] ;
102 -> 110 ;
111 [label="X[27] <= 11.0\ngini = 0.495\nsamples = 12\nvalue = [0, 11, 0, 0, 9, 0, 0, 0, 0, 0]"] ;
110 -> 111 ;
112 [label="gini = 0.0\nsamples = 4\nvalue = [0, 0, 0, 0, 7, 0, 0, 0, 0, 0]"] ;
111 -> 112 ;
113 [label="X[13] <= 8.5\ngini = 0.2604\nsamples = 8\nvalue = [0, 11, 0, 0, 2, 0, 0, 0, 0, 0]"] ;
111 -> 113 ;
114 [label="gini = 0.0\nsamples = 2\nvalue = [0, 0, 0, 0, 2, 0, 0, 0, 0, 0]"] ;
113 -> 114 ;
115 [label="gini = 0.0\nsamples = 6\nvalue = [0, 11, 0, 0, 0, 0, 0, 0, 0, 0]"] ;
113 -> 115 ;
116 [label="X[37] <= 11.0\ngini = 0.6481\nsamples = 11\nvalue = [2, 0, 0, 1, 1, 2, 10, 0, 2, 0]"] ;
110 -> 116 ;
117 [label="X[21] <= 5.5\ngini = 0.2975\nsamples = 6\nvalue = [0, 0, 0, 0, 0, 0, 9, 0, 2, 0]"] ;
116 -> 117 ;
118 [label="gini = 0.0\nsamples = 4\nvalue = [0, 0, 0, 0, 0, 0, 9, 0, 0, 0]"] ;
117 -> 118 ;
119 [label="gini = 0.0\nsamples = 2\nvalue = [0, 0, 0, 0, 0, 0, 0, 0, 2, 0]"] ;
117 -> 119 ;
120 [label="X[2] <= 5.0\ngini = 0.7755\nsamples = 5\nvalue = [2, 0, 0, 1, 1, 2, 1, 0, 0, 0]"] ;
116 -> 120 ;
121 [label="X[36] <= 6.5\ngini = 0.72\nsamples = 4\nvalue = [2, 0, 0, 1, 1, 0, 1, 0, 0, 0]"] ;
120 -> 121 ;
122 [label="gini = 0.0\nsamples = 1\nvalue = [2, 0, 0, 0, 0, 0, 0, 0, 0, 0]"] ;
121 -> 122 ;
123 [label="X[44] <= 2.0\ngini = 0.6667\nsamples = 3\nvalue = [0, 0, 0, 1, 1, 0, 1, 0, 0, 0]"] ;
121 -> 123 ;
124 [label="gini = 0.0\nsamples = 1\nvalue = [0, 0, 0, 1, 0, 0, 0, 0, 0, 0]"] ;
123 -> 124 ;
125 [label="X[3] <= 8.5\ngini = 0.5\nsamples = 2\nvalue = [0, 0, 0, 0, 1, 0, 1, 0, 0, 0]"] ;
123 -> 125 ;
126 [label="gini = 0.0\nsamples = 1\nvalue = [0, 0, 0, 0, 1, 0, 0, 0, 0, 0]"] ;
125 -> 126 ;
127 [label="gini = 0.0\nsamples = 1\nvalue = [0, 0, 0, 0, 0, 0, 1, 0, 0, 0]"] ;
125 -> 127 ;
128 [label="gini = 0.0\nsamples = 1\nvalue = [0, 0, 0, 0, 0, 2, 0, 0, 0, 0]"] ;
120 -> 128 ;
}