digraph Tree {
node [shape=box] ;
0 [label="X[43] <= 2.5\ngini = 0.8964\nsamples = 232\nvalue = [44, 30, 33, 36, 46, 44, 39, 34, 27, 26]"] ;
1 [label="X[42] <= 6.5\ngini = 0.7987\nsamples = 92\nvalue = [38, 4, 3, 30, 1, 28, 4, 0, 5, 23]"] ;
0 -> 1 [labeldistance=2.5, labelangle=45, headlabel="True"] ;
2 [label="X[18] <= 4.0\ngini = 0.7185\nsamples = 63\nvalue = [0, 4, 3, 29, 1, 28, 0, 0, 0, 23]"] ;
1 -> 2 ;
3 [label="X[35] <= 13.5\ngini = 0.095\nsamples = 14\nvalue = [0, 0, 0, 19, 0, 0, 0, 0, 0, 1]"] ;
2 -> 3 ;
4 [label="gini = 0.0\nsamples = 13\nvalue = [0, 0, 0, 19, 0, 0, 0, 0, 0, 0]"] ;
3 -> 4 ;
5 [label="gini = 0.0\nsamples = 1\nvalue = [0, 0, 0, 0, 0, 0, 0, 0, 0, 1]"] ;
3 -> 5 ;
6 [label="X[36] <= 10.5\ngini = 0.6985\nsamples = 49\nvalue = [0, 4, 3, 10, 1, 28, 0, 0, 0, 22]"] ;
2 -> 6 ;
7 [label="X[18] <= 13.5\ngini = 0.6599\nsamples = 31\nvalue = [0, 3, 3, 7, 0, 7, 0, 0, 0, 22]"] ;
6 -> 7 ;
8 [label="X[44] <= 10.5\ngini = 0.5405\nsamples = 20\nvalue = [0, 1, 3, 6, 0, 0, 0, 0, 0, 17]"] ;
7 -> 8 ;
9 [label="X[36] <= 5.0\ngini = 0.434\nsamples = 18\nvalue = [0, 1, 0, 6, 0, 0, 0, 0, 0, 17]"] ;
8 -> 9 ;
10 [label="X[6] <= 5.0\ngini = 0.1244\nsamples = 11\nvalue = [0, 1, 0, 0, 0, 0, 0, 0, 0, 14]"] ;
9 -> 10 ;
11 [label="gini = 0.0\nsamples = 10\nvalue = [0, 0, 0, 0, 0, 0, 0, 0, 0, 14]"] ;
10 -> 11 ;
12 [label="gini = 0.0\nsamples = 1\nvalue = [0, 1, 0, 0, 0, 0, 0, 0, 0, 0]"] ;
10 -> 12 ;
13 [label="X[22] <= 2.0\ngini = 0.4444\nsamples = 7\nvalue = [0, 0, 0, 6, 0, 0, 0, 0, 0, 3]"] ;
9 -> 13 ;
14 [label="X[29] <= 13.0\ngini = 0.2449\nsamples = 5\nvalue = [0, 0, 0, 6, 0, 0, 0, 0, 0, 1]"] ;
13 -> 14 ;
15 [label="gini = 0.0\nsamples = 4\nvalue = [0, 0, 0, 6, 0, 0, 0, 0, 0, 0]"] ;
14 -> 15 ;
16 [label="gini = 0.0\nsamples = 1\nvalue = [0, 0, 0, 0, 0, 0, 0, 0, 0, 1]"] ;
14 -> 16 ;
17 [label="gini = 0.0\nsamples = 2\nvalue = [0, 0, 0, 0, 0, 0, 0, 0, 0, 2]"] ;
13 -> 17 ;
18 [label="gini = 0.0\nsamples = 2\nvalue = [0, 0, 3, 0, 0, 0, 0, 0, 0, 0]"] ;
8 -> 18 ;
19 [label="X[30] <= 1.5\ngini = 0.6489\nsamples = 11\nvalue = [0, 2, 0, 1, 0, 7, 0, 0, 0, 5]"] ;
7 -> 19 ;
20 [label="X[5] <= 5.5\ngini = 0.2449\nsamples = 6\nvalue = [0, 0, 0, 1, 0, 6, 0, 0, 0, 0]"] ;
19 -> 20 ;
21 [label="X[20] <= 7.0\ngini = 0.5\nsamples = 2\nvalue = [0, 0, 0, 1, 0, 1, 0, 0, 0, 0]"] ;
20 -> 21 ;
22 [label="gini = 0.0\nsamples = 1\nvalue = [0, 0, 0, 1, 0, 0, 0, 0, 0, 0]"] ;
21 -> 22 ;
23 [label="gini = 0.0\nsamples = 1\nvalue = [0, 0, 0, 0, 0, 1, 0, 0, 0, 0]"] ;
21 -> 23 ;
24 [label="gini = 0.0\nsamples = 4\nvalue = [0, 0, 0, 0, 0, 5, 0, 0, 0, 0]"] ;
20 -> 24 ;
25 [label="X[25] <= 2.5\ngini = 0.5312\nsamples = 5\nvalue = [0, 2, 0, 0, 0, 1, 0, 0, 0, 5]"] ;
19 -> 25 ;
26 [label="gini = 0.0\nsamples = 3\nvalue = [0, 0, 0, 0, 0, 0, 0, 0, 0, 5]"] ;
25 -> 26 ;
27 [label="X[59] <= 7.0\ngini = 0.4444\nsamples = 2\nvalue = [0, 2, 0, 0, 0, 1, 0, 0, 0, 0]"] ;
25 -> 27 ;
28 [label="gini = 0.0\nsamples = 1\nvalue = [0, 2, 0, 0, 0, 0, 0, 0, 0, 0]"] ;
27 -> 28 ;
29 [label="gini = 0.0\nsamples = 1\nvalue = [0, 0, 0, 0, 0, 1, 0, 0, 0, 0]"] ;
27 -> 29 ;
30 [label="X[26] <= 12.0\ngini = 0.3314\nsamples = 18\nvalue = [0, 1, 0, 3, 1, 21, 0, 0, 0, 0]"] ;
6 -> 30 ;
31 [label="X[27] <= 14.5\ngini = 0.375\nsamples = 4\nvalue = [0, 1, 0, 3, 0, 0, 0, 0, 0, 0]"] ;
30 -> 31 ;
32 [label="gini = 0.0\nsamples = 3\nvalue = [0, 0, 0, 3, 0, 0, 0, 0, 0, 0]"] ;
31 -> 32 ;
33 [label="gini = 0.0\nsamples = 1\nvalue = [0, 1, 0, 0, 0, 0, 0, 0, 0, 0]"] ;
31 -> 33 ;
34 [label="X[2] <= 0.5\ngini = 0.0868\nsamples = 14\nvalue = [0, 0, 0, 0, 1, 21, 0, 0, 0, 0]"] ;
30 -> 34 ;
35 [label="gini = 0.0\nsamples = 1\nvalue = [0, 0, 0, 0, 1, 0, 0, 0, 0, 0]"] ;
34 -> 35 ;
36 [label="gini = 0.0\nsamples = 13\nvalue = [0, 0, 0, 0, 0, 21, 0, 0, 0, 0]"] ;
34 -> 36 ;
37 [label="X[37] <= 2.5\ngini = 0.355\nsamples = 29\nvalue = [38, 0, 0, 1, 0, 0, 4, 0, 5, 0]"] ;
1 -> 37 ;
38 [label="gini = 0.0\nsamples = 3\nvalue = [0, 0, 0, 0, 0, 0, 0, 0, 5, 0]"] ;
37 -> 38 ;
39 [label="X[36] <= 2.0\ngini = 0.2098\nsamples = 26\nvalue = [38, 0, 0, 1, 0, 0, 4, 0, 0, 0]"] ;
37 -> 39 ;
40 [label="gini = 0.0\nsamples = 23\nvalue = [38, 0, 0, 0, 0, 0, 0, 0, 0, 0]"] ;
39 -> 40 ;
41 [label="X[25] <= 0.5\ngini = 0.32\nsamples = 3\nvalue = [0, 0, 0, 1, 0, 0, 4, 0, 0, 0]"] ;
39 -> 41 ;
42 [label="gini = 0.0\nsamples = 1\nvalue = [0, 0, 0, 1, 0, 0, 0, 0, 0, 0]"] ;
41 -> 42 ;
43 [label="gini = 0.0\nsamples = 2\nvalue = [0, 0, 0, 0, 0, 0, 4, 0, 0, 0]"] ;
41 -> 43 ;
44 [label="X[13] <= 6.5\ngini = 0.8632\nsamples = 140\nvalue = [6, 26, 30, 6, 45, 16, 35, 34, 22, 3]"] ;
0 -> 44 [labeldistance=2.5, labelangle=-45, headlabel="False"] ;
45 [label="X[62] <= 0.5\ngini = 0.7196\nsamples = 67\nvalue = [1, 6, 20, 2, 43, 4, 32, 1, 0, 0]"] ;
44 -> 45 ;
46 [label="X[2] <= 3.5\ngini = 0.434\nsamples = 36\nvalue = [0, 3, 0, 2, 43, 4, 5, 1, 0, 0]"] ;
45 -> 46 ;
47 [label="X[45] <= 4.0\ngini = 0.2224\nsamples = 31\nvalue = [0, 3, 0, 0, 43, 0, 3, 0, 0, 0]"] ;
46 -> 47 ;
48 [label="X[60] <= 8.0\ngini = 0.4444\nsamples = 3\nvalue = [0, 2, 0, 0, 1, 0, 0, 0, 0, 0]"] ;
47 -> 48 ;
49 [label="gini = 0.0\nsamples = 1\nvalue = [0, 0, 0, 0, 1, 0, 0, 0, 0, 0]"] ;
48 -> 49 ;
50 [label="gini = 0.0\nsamples = 2\nvalue = [0, 2, 0, 0, 0, 0, 0, 0, 0, 0]"] ;
48 -> 50 ;
51 [label="X[53] <= 12.0\ngini = 0.1616\nsamples = 28\nvalue = [0, 1, 0, 0, 42, 0, 3, 0, 0, 0]"] ;
47 -> 51 ;
52 [label="gini = 0.0\nsamples = 21\nvalue = [0, 0, 0, 0, 36, 0, 0, 0, 0, 0]"] ;
51 -> 52 ;
53 [label="X[43] <= 13.5\ngini = 0.54\nsamples = 7\nvalue = [0, 1, 0, 0, 6, 0, 3, 0, 0, 0]"] ;
51 -> 53 ;
54 [label="X[27] <= 15.0\ngini = 0.2449\nsamples = 5\nvalue = [0, 1, 0, 0, 6, 0, 0, 0, 0, 0]"] ;
53 -> 54 ;
55 [label="gini = 0.0\nsamples = 4\nvalue = [0, 0, 0, 0, 6, 0, 0, 0, 0, 0]"] ;
54 -> 55 ;
56 [label="gini = 0.0\nsamples = 1\nvalue = [0, 1, 0, 0, 0, 0, 0, 0, 0, 0]"] ;
54 -> 56 ;
57 [label="gini = 0.0\nsamples = 2\nvalue = [0, 0, 0, 0, 0, 0, 3, 0, 0, 0]"] ;
53 -> 57 ;
58 [label="X[51] <= 4.5\ngini = 0.6914\nsamples = 5\nvalue = [0, 0, 0, 2, 0, 4, 2, 1, 0, 0]"] ;
46 -> 58 ;
59 [label="X[60] <= 12.5\ngini = 0.5\nsamples = 2\nvalue = [0, 0, 0, 2, 0, 0, 2, 0, 0, 0]"] ;
58 -> 59 ;
60 [label="gini = 0.0\nsamples = 1\nvalue = [0, 0, 0, 2, 0, 0, 0, 0, 0, 0]"] ;
59 -> 60 ;
61 [label="gini = 0.0\nsamples = 1\nvalue = [0, 0, 0, 0, 0, 0, 2, 0, 0, 0]"] ;
59 -> 61 ;
62 [label="X[18] <= 4.5\ngini = 0.32\nsamples = 3\nvalue = [0, 0, 0, 0, 0, 4, 0, 1, 0, 0]"] ;
58 -> 62 ;
63 [label="gini = 0.0\nsamples = 1\nvalue = [0, 0, 0, 0, 0, 0, 0, 1, 0, 0]"] ;
62 -> 63 ;
64 [label="gini = 0.0\nsamples = 2\nvalue = [0, 0, 0, 0, 0, 4, 0, 0, 0, 0]"] ;
62 -> 64 ;
65 [label="X[20] <= 9.5\ngini = 0.5621\nsamples = 31\nvalue = [1, 3, 20, 0, 0, 0, 27, 0, 0, 0]"] ;
45 -> 65 ;
66 [label="X[45] <= 2.0\ngini = 0.18\nsamples = 18\nvalue = [0, 3, 0, 0, 0, 0, 27, 0, 0, 0]"] ;
65 -> 66 ;
67 [label="gini = 0.0\nsamples = 3\nvalue = [0, 3, 0, 0, 0, 0, 0, 0, 0, 0]"] ;
66 -> 67 ;
68 [label="gini = 0.0\nsamples = 15\nvalue = [0, 0, 0, 0, 0, 0, 27, 0, 0, 0]"] ;
66 -> 68 ;
69 [label="X[30] <= 2.0\ngini = 0.0907\nsamples = 13\nvalue = [1, 0, 20, 0, 0, 0, 0, 0, 0, 0]"] ;
65 -> 69 ;
70 [label="gini = 0.0\nsamples = 12\nvalue = [0, 0, 20, 0, 0, 0, 0, 0, 0, 0]"] ;
69 -> 70 ;
71 [label="gini = 0.0\nsamples = 1\nvalue = [1, 0, 0, 0, 0, 0, 0, 0, 0, 0]"] ;
69 -> 71 ;
72 [label="X[27] <= 10.5\ngini = 0.8246\nsamples = 73\nvalue = [5, 20, 10, 4, 2, 12, 3, 33, 22, 3]"] ;
44 -> 72 ;
73 [label="X[60] <= 8.0\ngini = 0.659\nsamples = 41\nvalue = [5, 0, 10, 0, 1, 3, 3, 33, 6, 0]"] ;
72 -> 73 ;
74 [label="X[37] <= 2.5\ngini = 0.1972\nsamples = 24\nvalue = [0, 0, 1, 0, 0, 3, 0, 33, 0, 0]"] ;
73 -> 74 ;
75 [label="X[5] <= 7.5\ngini = 0.375\nsamples = 3\nvalue = [0, 0, 1, 0, 0, 3, 0, 0, 0, 0]"] ;
74 -> 75 ;
76 [label="gini = 0.0\nsamples = 1\nvalue = [0, 0, 1, 0, 0, 0, 0, 0, 0, 0]"] ;
75 -> 76 ;
77 [label="gini = 0.0\nsamples = 2\nvalue = [0, 0, 0, 0, 0, 3, 0, 0, 0, 0]"] ;
75 -> 77 ;
78 [label="gini = 0.0\nsamples = 21\nvalue = [0, 0, 0, 0, 0, 0, 0, 33, 0, 0]"] ;
74 -> 78 ;
79 [label="X[18] <= 12.0\ngini = 0.7361\nsamples = 17\nvalue = [5, 0, 9, 0, 1, 0, 3, 0, 6, 0]"] ;
73 -> 79 ;
80 [label="X[51] <= 7.5\ngini = 0.4028\nsamples = 11\nvalue = [0, 0, 9, 0, 1, 0, 0, 0, 2, 0]"] ;
79 -> 80 ;
81 [label="X[6] <= 0.5\ngini = 0.5\nsamples = 2\nvalue = [0, 0, 0, 0, 1, 0, 0, 0, 1, 0]"] ;
80 -> 81 ;
82 [label="gini = 0.0\nsamples = 1\nvalue = [0, 0, 0, 0, 1, 0, 0, 0, 0, 0]"] ;
81 -> 82 ;
83 [label="gini = 0.0\nsamples = 1\nvalue = [0, 0, 0, 0, 0, 0, 0, 0, 1, 0]"] ;
81 -> 83 ;
84 [label="X[45] <= 13.5\ngini = 0.18\nsamples = 9\nvalue = [0, 0, 9, 0, 0, 0, 0, 0, 1, 0]"] ;
80 -> 84 ;
85 [label="gini = 0.0\nsamples = 8\nvalue = [0, 0, 9, 0, 0, 0, 0, 0, 0, 0]"] ;
84 -> 85 ;
86 [label="gini = 0.0\nsamples = 1\nvalue = [0, 0, 0, 0, 0, 0, 0, 0, 1, 0]"] ;
84 -> 86 ;
87 [label="X[30] <= 2.0\ngini = 0.6528\nsamples = 6\nvalue = [5, 0, 0, 0, 0, 0, 3, 0, 4, 0]"] ;
79 -> 87 ;
88 [label="X[58] <= 1.0\ngini = 0.4898\nsamples = 3\nvalue = [0, 0, 0, 0, 0, 0, 3, 0, 4, 0]"] ;
87 -> 88 ;
89 [label="gini = 0.0\nsamples = 2\nvalue = [0, 0, 0, 0, 0, 0, 0, 0, 4, 0]"] ;
88 -> 89 ;
90 [label="gini = 0.0\nsamples = 1\nvalue = [0, 0, 0, 0, 0, 0, 3, 0, 0, 0]"] ;
88 -> 90 ;
91 [label="gini = 0.0\nsamples = 3\nvalue = [5, 0, 0, 0, 0, 0, 0, 0, 0, 0]"] ;
87 -> 91 ;
92 [label="X[37] <= 2.0\ngini = 0.7284\nsamples = 32\nvalue = [0, 20, 0, 4, 1, 9, 0, 0, 16, 3]"] ;
72 -> 92 ;
93 [label="X[59] <= 12.5\ngini = 0.6914\nsamples = 10\nvalue = [0, 2, 0, 1, 1, 9, 0, 0, 3, 2]"] ;
92 -> 93 ;
94 [label="X[25] <= 1.0\ngini = 0.64\nsamples = 3\nvalue = [0, 2, 0, 0, 1, 0, 0, 0, 0, 2]"] ;
93 -> 94 ;
95 [label="gini = 0.0\nsamples = 1\nvalue = [0, 0, 0, 0, 0, 0, 0, 0, 0, 2]"] ;
94 -> 95 ;
96 [label="X[41] <= 0.5\ngini = 0.4444\nsamples = 2\nvalue = [0, 2, 0, 0, 1, 0, 0, 0, 0, 0]"] ;
94 -> 96 ;
97 [label="gini = 0.0\nsamples = 1\nvalue = [0, 0, 0, 0, 1, 0, 0, 0, 0, 0]"] ;
96 -> 97 ;
98 [label="gini = 0.0\nsamples = 1\nvalue = [0, 2, 0, 0, 0, 0, 0, 0, 0, 0]"] ;
96 -> 98 ;
99 [label="X[60] <= 7.5\ngini = 0.4615\nsamples = 7\nvalue = [0, 0, 0, 1, 0, 9, 0, 0, 3, 0]"] ;
93 -> 99 ;
100 [label="X[19] <= 6.5\ngini = 0.18\nsamples = 5\nvalue = [0, 0, 0, 1, 0, 9, 0, 0, 0, 0]"] ;
99 -> 100 ;
101 [label="gini = 0.0\nsamples = 1\nvalue = [0, 0, 0, 1, 0, 0, 0, 0, 0, 0]"] ;
100 -> 101 ;
102 [label="gini = 0.0\nsamples = 4\nvalue = [0, 0, 0, 0, 0, 9, 0, 0, 0, 0]"] ;
100 -> 102 ;
103 [label="gini = 0.0\nsamples = 2\nvalue = [0, 0, 0, 0, 0, 0, 0, 0, 3, 0]"] ;
99 -> 103 ;
104 [label="X[12] <= 14.5\ngini = 0.5894\nsamples = 22\nvalue = [0, 18, 0, 3, 0, 0, 0, 0, 13, 1]"] ;
92 -> 104 ;
105 [label="X[3] <= 13.5\ngini = 0.4938\nsamples = 6\nvalue = [0, 0, 0, 2, 0, 0, 0, 0, 6, 1]"] ;
104 -> 105 ;
106 [label="gini = 0.0\nsamples = 4\nvalue = [0, 0, 0, 0, 0, 0, 0, 0, 6, 0]"] ;
105 -> 106 ;
107 [label="X[18] <= 8.0\ngini = 0.4444\nsamples = 2\nvalue = [0, 0, 0, 2, 0, 0, 0, 0, 0, 1]"] ;
105 -> 107 ;
108 [label="gini = 0.0\nsamples = 1\nvalue = [0, 0, 0, 2, 0, 0, 0, 0, 0, 0]"] ;
107 -> 108 ;
109 [label="gini = 0.0\nsamples = 1\nvalue = [0, 0, 0, 0, 0, 0, 0, 0, 0, 1]"] ;
107 -> 109 ;
110 [label="X[9] <= 1.0\ngini = 0.4467\nsamples = 16\nvalue = [0, 18, 0, 1, 0, 0, 0, 0, 7, 0]"] ;
104 -> 110 ;
111 [label="X[4] <= 8.0\ngini = 0.2449\nsamples = 13\nvalue = [0, 18, 0, 0, 0, 0, 0, 0, 3, 0]"] ;
110 -> 111 ;
112 [label="gini = 0.0\nsamples = 1\nvalue = [0, 0, 0, 0, 0, 0, 0, 0, 2, 0]"] ;
111 -> 112 ;
113 [label="X[49] <= 0.5\ngini = 0.0997\nsamples = 12\nvalue = [0, 18, 0, 0, 0, 0, 0, 0, 1, 0]"] ;
111 -> 113 ;
114 [label="gini = 0.0\nsamples = 9\nvalue = [0, 13, 0, 0, 0, 0, 0, 0, 0, 0]"] ;
113 -> 114 ;
115 [label="X[5] <= 1.5\ngini = 0.2778\nsamples = 3\nvalue = [0, 5, 0, 0, 0, 0, 0, 0, 1, 0]"] ;
113 -> 115 ;
116 [label="gini = 0.0\nsamples = 1\nvalue = [0, 0, 0, 0, 0, 0, 0, 0, 1, 0]"] ;
115 -> 116 ;
117 [label="gini = 0.0\nsamples = 2\nvalue = [0, 5, 0, 0, 0, 0, 0, 0, 0, 0]"] ;
115 -> 117 ;
118 [label="X[46] <= 9.0\ngini = 0.32\nsamples = 3\nvalue = [0, 0, 0, 1, 0, 0, 0, 0, 4, 0]"] ;
110 -> 118 ;
119 [label="gini = 0.0\nsamples = 2\nvalue = [0, 0, 0, 0, 0, 0, 0, 0, 4, 0]"] ;
118 -> 119 ;
120 [label="gini = 0.0\nsamples = 1\nvalue = [0, 0, 0, 1, 0, 0, 0, 0, 0, 0]"] ;
118 -> 120 ;
}